Language model created by QuickLM on Sun Jan  9 23:55:29 EST 2011
Copyright (c) 1996-2010 Carnegie Mellon University and Alexander I. Rudnicky

The model is in standard ARPA format, designed by Doug Paul while he was at MITRE.

The code that was used to produce this language model is available in Open Source.
Please visit http://www.speech.cs.cmu.edu/tools/ for more information

The (fixed) discount mass is 0.5. The backoffs are computed using the ratio method.
This model based on a corpus of 10 sentences and 21 words

\data\
ngram 1=21
ngram 2=29
ngram 3=21

\1-grams:
-0.9138 </s> -0.3010
-0.9138 <s> -0.2445
-1.9138 ALARM -0.2957
-1.9138 CAMERA -0.2445
-1.9138 COMMUNICATION -0.2957
-1.9138 DEVICE -0.2445
-1.9138 DISPLAY -0.2848
-1.9138 GPS -0.2957
-1.9138 GUIDE -0.2445
-1.9138 LOCATION -0.2445
-1.4367 MODE -0.2445
-1.9138 MODES -0.2445
-1.9138 NIGHT -0.2957
-1.9138 QUICK -0.2957
-1.9138 SETTINGS -0.2445
-1.9138 SILENCE -0.2445
-1.9138 START -0.2957
-1.9138 SYSTEM -0.2957
-1.9138 TACTICAL -0.2848
-1.9138 VISION -0.2848
-1.9138 WIRELESS -0.2957

\2-grams:
-1.3010 <s> ALARM 0.0000
-1.3010 <s> CAMERA 0.0000
-1.3010 <s> COMMUNICATION 0.0000
-1.3010 <s> DISPLAY 0.0000
-1.3010 <s> GPS 0.0000
-1.3010 <s> NIGHT 0.0000
-1.3010 <s> QUICK 0.0000
-1.3010 <s> SYSTEM 0.0000
-1.3010 <s> TACTICAL 0.0000
-1.3010 <s> WIRELESS 0.0000
-0.3010 ALARM SILENCE 0.0000
-0.3010 CAMERA </s> -0.3010
-0.3010 COMMUNICATION MODES 0.0000
-0.3010 DEVICE </s> -0.3010
-0.3010 DISPLAY MODE 0.0000
-0.3010 GPS LOCATION 0.0000
-0.3010 GUIDE </s> -0.3010
-0.3010 LOCATION </s> -0.3010
-0.3010 MODE </s> -0.3010
-0.3010 MODES </s> -0.3010
-0.3010 NIGHT VISION 0.0000
-0.3010 QUICK START 0.0000
-0.3010 SETTINGS </s> -0.3010
-0.3010 SILENCE </s> -0.3010
-0.3010 START GUIDE 0.0000
-0.3010 SYSTEM SETTINGS 0.0000
-0.3010 TACTICAL MODE 0.0000
-0.3010 VISION MODE 0.0000
-0.3010 WIRELESS DEVICE 0.0000

\3-grams:
-0.3010 <s> ALARM SILENCE
-0.3010 <s> CAMERA </s>
-0.3010 <s> COMMUNICATION MODES
-0.3010 <s> DISPLAY MODE
-0.3010 <s> GPS LOCATION
-0.3010 <s> NIGHT VISION
-0.3010 <s> QUICK START
-0.3010 <s> SYSTEM SETTINGS
-0.3010 <s> TACTICAL MODE
-0.3010 <s> WIRELESS DEVICE
-0.3010 ALARM SILENCE </s>
-0.3010 COMMUNICATION MODES </s>
-0.3010 DISPLAY MODE </s>
-0.3010 GPS LOCATION </s>
-0.3010 NIGHT VISION MODE
-0.3010 QUICK START GUIDE
-0.3010 START GUIDE </s>
-0.3010 SYSTEM SETTINGS </s>
-0.3010 TACTICAL MODE </s>
-0.3010 VISION MODE </s>
-0.3010 WIRELESS DEVICE </s>

\end\
